digraph Tree {
node [shape=box, style="filled, rounded", color="black", fontname="helvetica"] ;
edge [fontname="helvetica"] ;
0 [label="confidence <= 2.7\ngini = 0.47\nsamples = 216\nvalue = [225, 131]\nclass = low", fillcolor="#f4caac"] ;
1 [label="confidence <= 2.5\ngini = 0.45\nsamples = 92\nvalue = [54, 103]\nclass = high", fillcolor="#a1d0f3"] ;
0 -> 1 [labeldistance=2.5, labelangle=45, headlabel="True"] ;
2 [label="Socioeconomic <= 3.25\ngini = 0.36\nsamples = 59\nvalue = [24, 76]\nclass = high", fillcolor="#78bced"] ;
1 -> 2 ;
3 [label="time management <= 3.62\ngini = 0.47\nsamples = 24\nvalue = [17, 29]\nclass = high", fillcolor="#add6f4"] ;
2 -> 3 ;
4 [label="gini = 0.3\nsamples = 18\nvalue = [6, 26]\nclass = high", fillcolor="#67b4eb"] ;
3 -> 4 ;
5 [label="gini = 0.34\nsamples = 6\nvalue = [11, 3]\nclass = low", fillcolor="#eca36f"] ;
3 -> 5 ;
6 [label="confidence <= 2.1\ngini = 0.23\nsamples = 35\nvalue = [7, 47]\nclass = high", fillcolor="#56ace9"] ;
2 -> 6 ;
7 [label="gini = 0.0\nsamples = 17\nvalue = [0, 28]\nclass = high", fillcolor="#399de5"] ;
6 -> 7 ;
8 [label="gini = 0.39\nsamples = 18\nvalue = [7, 19]\nclass = high", fillcolor="#82c1ef"] ;
6 -> 8 ;
9 [label="motivation <= 3.1\ngini = 0.5\nsamples = 33\nvalue = [30, 27]\nclass = low", fillcolor="#fcf2eb"] ;
1 -> 9 ;
10 [label="motivation <= 2.9\ngini = 0.49\nsamples = 32\nvalue = [30, 24]\nclass = low", fillcolor="#fae6d7"] ;
9 -> 10 ;
11 [label="gini = 0.49\nsamples = 22\nvalue = [13, 18]\nclass = high", fillcolor="#c8e4f8"] ;
10 -> 11 ;
12 [label="gini = 0.39\nsamples = 10\nvalue = [17, 6]\nclass = low", fillcolor="#eead7f"] ;
10 -> 12 ;
13 [label="gini = 0.0\nsamples = 1\nvalue = [0, 3]\nclass = high", fillcolor="#399de5"] ;
9 -> 13 ;
14 [label="motivation <= 3.3\ngini = 0.24\nsamples = 124\nvalue = [171, 28]\nclass = low", fillcolor="#e99659"] ;
0 -> 14 [labeldistance=2.5, labelangle=-45, headlabel="False"] ;
15 [label="confidence <= 3.1\ngini = 0.31\nsamples = 91\nvalue = [120, 28]\nclass = low", fillcolor="#eb9e67"] ;
14 -> 15 ;
16 [label="Socioeconomic <= 4.25\ngini = 0.36\nsamples = 62\nvalue = [78, 24]\nclass = low", fillcolor="#eda876"] ;
15 -> 16 ;
17 [label="gini = 0.43\nsamples = 41\nvalue = [46, 21]\nclass = low", fillcolor="#f1bb93"] ;
16 -> 17 ;
18 [label="gini = 0.16\nsamples = 21\nvalue = [32, 3]\nclass = low", fillcolor="#e78d4c"] ;
16 -> 18 ;
19 [label="motivation <= 3.1\ngini = 0.16\nsamples = 29\nvalue = [42, 4]\nclass = low", fillcolor="#e78d4c"] ;
15 -> 19 ;
20 [label="gini = 0.05\nsamples = 23\nvalue = [37, 1]\nclass = low", fillcolor="#e6843e"] ;
19 -> 20 ;
21 [label="gini = 0.47\nsamples = 6\nvalue = [5, 3]\nclass = low", fillcolor="#f5cdb0"] ;
19 -> 21 ;
22 [label="gini = 0.0\nsamples = 33\nvalue = [51, 0]\nclass = low", fillcolor="#e58139"] ;
14 -> 22 ;
}